#ifndef REGRESSION_RNN_MODEL_H
#define REGRESSION_RNN_MODEL_H

#include <vector>

const float rnn_weight_ih_l0[] = {
    0.21596265f, -1.21949089f, 0.71867681f, 0.62364513f, 0.36228788f, -1.31477964f, 0.39493740f, 0.70204568f, 0.65634590f, -0.34767964f, 
    0.73494178f, -0.00759230f, 0.50902736f, -0.38108826f, -0.50225395f, 0.06860983f, -0.76784855f, 0.01845372f, -0.41992390f, 0.76752204f, 
    -0.54280561f, -0.10465579f, -0.72286987f, -1.89614618f, 0.06232644f, 0.59672678f, 0.49439734f, -0.10390719f, 0.37121758f, 0.58708626f, 
    0.51776725f, -2.33627892f, 0.83764267f, 2.10448718f, 1.76640344f, -2.50718284f, 0.51953495f, 0.17663606f, -1.42636704f, 0.36159530f, 
    0.97726434f, 0.31556427f, -0.60628492f, 0.12054785f, -1.90372980f, -0.28108612f, 0.00257288f, 0.57485753f, -0.85084426f, 1.47425580f, 
    -0.44127592f, -0.73534018f, -0.14819808f, -2.71459270f, 1.00880635f, 4.32879829f, 0.12714785f, 0.65217960f, 1.77406156f, 0.06165569f, 
    -0.78187585f, 1.73338163f, -0.78612679f, -1.37908852f, 0.03594497f, 0.82080525f, -0.19399573f, -0.13350536f, -1.86020792f, 0.59910017f, 
    1.82062602f, -0.62649441f, -0.53806704f, -0.14752197f, -1.40642726f, 0.13811468f, -2.07818747f, -0.17780325f, -1.33214271f, 0.54246366f, 
    0.52134848f, 1.14553320f, 0.25960699f, 1.28315318f, 1.42885590f, 0.29930523f, -0.57450968f, -0.21503811f, -1.79132760f, -0.34952036f, 
    0.23972814f, -1.17746186f, 0.07278052f, 0.78541565f, 0.76097482f, -1.14310288f, 0.20189023f, -0.21482925f, -0.01173729f, -0.67335021f, 
    0.58830929f, -0.33050355f, -0.18573236f, 1.05069375f, -0.71176982f, -0.05303669f, -0.65369034f, 0.19527556f, -0.39486125f, 0.40722802f, 
    -0.42858195f, -0.73897994f, 1.34773576f, -1.64409781f, 0.06276452f, 0.69921243f, 0.24343419f, -0.46692562f, 0.49934340f, 0.37712967f
};
const int rnn_weight_ih_l0_dims[] = {40, 3};
const int rnn_weight_ih_l0_num_dims = 2;

const float rnn_weight_hh_l0[] = {
    -0.78218782f, -0.24792364f, 0.54521763f, 0.63876885f, 0.05589402f, 0.68012708f, 0.05925275f, -0.92962027f, -0.23409338f, -0.88924134f, 
    -0.40594572f, -0.12003835f, -0.64033514f, 0.12003264f, 0.26018184f, 0.29341274f, 0.58428180f, -0.40102100f, -1.09435499f, 0.00237450f, 
    -1.06957924f, -0.25668898f, -1.35847986f, 0.83447951f, -0.33178273f, 0.19549204f, -0.06309125f, -0.86369419f, 0.66970676f, -0.69558835f, 
    -0.34516829f, -0.02803214f, -0.38610932f, -0.60620922f, -0.04751802f, -0.29231116f, -0.19492590f, -0.84097826f, -0.57401699f, 0.28889149f, 
    -1.29103100f, -0.53248096f, -0.73305917f, 0.58802265f, -0.67700011f, 0.82804787f, 0.43748504f, -1.59365654f, -0.35524216f, -0.94379812f, 
    -0.76751506f, -0.01240272f, -0.00747309f, 0.51829505f, -0.69051743f, 0.11749114f, 0.13357326f, -1.29340529f, 0.11014728f, 0.11744097f, 
    -0.73801863f, -1.25694299f, -0.05897833f, -0.05599067f, -0.04977299f, -0.53683335f, -0.08066801f, -0.70838112f, -0.42390633f, -1.04318941f, 
    -0.61666679f, -0.48566052f, -0.86751854f, 0.04258374f, -0.03852080f, 1.05599856f, 0.14065683f, -0.62718308f, -0.24095280f, 0.33196321f, 
    -1.13876820f, -0.41201639f, -0.66796118f, 1.11824739f, 0.04251612f, 0.12023526f, 0.92303121f, -1.76169014f, -0.72092968f, -0.39493173f, 
    -1.26975071f, -0.81118721f, -0.73919868f, 0.10818405f, 0.70022786f, -0.47479969f, -0.92641890f, -1.17245710f, -0.28500128f, 0.43647516f, 
    0.06883880f, 0.40190747f, -0.18408941f, -0.31572381f, -0.41565645f, 0.85187072f, -0.22963905f, 1.46436501f, -0.67205465f, 0.70490158f, 
    -1.24634147f, -1.46523726f, 1.57995796f, 0.13016661f, 0.32687220f, -0.60910219f, -0.96734357f, -0.21747312f, 0.87676531f, 0.41747966f, 
    0.49477884f, -0.13994952f, 0.02922664f, -0.61934870f, 0.80209768f, -1.12691700f, 0.11162643f, -0.95332640f, 0.46577883f, 0.87645280f, 
    -0.50061971f, -0.44306326f, 0.08331495f, 0.57647127f, -1.04980171f, 1.64173412f, 0.76638079f, 0.96499771f, 0.72097218f, -0.02070239f, 
    0.58361280f, -0.42582622f, 1.79607296f, -0.75431001f, 0.69980413f, -1.73597598f, -0.62305349f, -1.38918531f, -0.04106637f, 1.02678645f, 
    -1.45555723f, -0.70403695f, -0.33687502f, 1.05273426f, -0.52997953f, 0.95850605f, 0.66076410f, -0.90655518f, 0.60351074f, -0.72184634f, 
    1.49258220f, 0.11587621f, 1.72898459f, 0.71910954f, 0.67131943f, -2.40280151f, 1.96790314f, 0.76142502f, -0.12542145f, -0.94157100f, 
    0.15162142f, 0.22101910f, 1.65396178f, -1.63465798f, 1.16023862f, -0.40905184f, 0.23849566f, -1.51607311f, -1.79620230f, 2.13193345f, 
    1.27753401f, -0.67100573f, 2.01242709f, 1.05201852f, 0.25759104f, -1.91581857f, 0.70720738f, -0.14283788f, 0.50472677f, -1.03510141f, 
    1.33723640f, 0.82395691f, 0.77286309f, 0.91072816f, 0.06315880f, -2.19318819f, 1.03966081f, -0.38029498f, 0.04336623f, -0.96364039f, 
    -0.97856659f, -0.44953904f, -0.77167559f, 0.06418528f, -0.69543862f, 0.78430116f, 0.00519918f, -0.00015198f, 0.45912781f, 0.73439348f, 
    -0.43722394f, -1.77196395f, -0.10754543f, -0.09288584f, 0.56902879f, -0.41825622f, -0.18824279f, 0.06690323f, -0.02392624f, -0.05352196f, 
    0.39473802f, 0.48134741f, -1.16283226f, 1.11376560f, -0.66072083f, 1.33129442f, 0.08790508f, 0.74415696f, -0.40459543f, -0.06726060f, 
    -0.02508508f, 0.32928315f, -0.38577697f, -0.88861489f, -0.05699244f, 0.90154284f, 0.28527701f, 0.31125927f, -0.51173806f, 0.60449356f, 
    0.42113569f, -0.05501034f, -0.19737665f, 0.63709968f, -1.96254694f, 0.93108487f, 0.51712626f, 0.70643091f, -0.11847517f, 0.08804652f, 
    0.53851974f, 0.44121575f, -0.56205964f, 1.17532206f, -0.73963821f, -0.54540914f, 0.56043136f, 0.02741596f, 0.07566293f, -1.14772153f, 
    0.27624795f, -0.55550814f, 0.08528654f, -0.56799686f, -0.18061575f, -0.23489998f, -1.34572089f, 0.19978304f, 0.30900502f, 0.25205448f, 
    -0.44540942f, 0.01678407f, 0.43613231f, -0.51204693f, 0.48106879f, -0.65504509f, -0.07145814f, -2.15425539f, -0.16409498f, -0.19914947f, 
    -0.14841180f, 0.59359169f, -0.29165620f, 0.47872046f, 0.24989812f, 0.49206629f, 0.03676327f, -0.12041808f, -1.20042908f, 0.01181873f, 
    0.42602110f, -0.12033644f, 0.22356789f, 0.42185271f, -0.63917053f, 0.39419201f, 0.54803145f, 0.14259413f, 0.29808825f, -1.27954948f, 
    -1.21591651f, -0.59233940f, -0.13244817f, 0.99795312f, -0.79349130f, 0.17039202f, -0.29545709f, 0.02591011f, -0.11970595f, -0.42677516f, 
    -1.06622994f, 0.28080365f, -0.64098990f, 0.56745839f, -0.40496463f, 0.51552254f, -0.07247737f, -0.13378461f, -1.29619741f, -0.36468664f, 
    -1.96043229f, -0.76269311f, -1.60072434f, 0.23213282f, -0.88341814f, 0.18251272f, -0.82183558f, -0.85574859f, 0.55663371f, 0.02254657f, 
    -0.30543256f, -0.62678409f, 0.07173588f, -0.49071547f, -0.18888834f, 0.21506035f, 0.06962911f, -1.22588992f, -0.34943721f, 0.46067071f, 
    -0.42634645f, -0.01517282f, -1.30170906f, 1.33515382f, -1.11853123f, 0.71244603f, 0.38935006f, -1.32861876f, 0.15641510f, -1.87222791f, 
    -0.59311014f, 0.75949097f, -0.77099705f, 1.09100163f, -0.87993997f, 0.61768073f, 0.99174649f, -0.49167752f, -0.90870529f, -0.88697195f, 
    -0.64275163f, -0.91474342f, -0.37731397f, -0.00289471f, 0.08227120f, 0.27073577f, -0.11088457f, -0.20494504f, -0.59470499f, -1.46048522f, 
    -0.10623021f, 0.27919745f, -0.61977369f, 0.42921695f, -0.54210198f, 0.02560984f, 1.14536083f, 0.14474997f, 0.17751405f, -0.78220791f, 
    -1.41475475f, -0.75687063f, -0.18891717f, 0.86425734f, 0.67769676f, 0.01691481f, 0.73026669f, -1.11487043f, -1.24895203f, -0.43954977f, 
    -1.82886732f, -1.18779492f, -0.10593239f, -0.49175200f, 0.67414778f, -0.25525686f, -1.01164401f, -1.46155202f, -0.30680087f, 0.46406370f
};
const int rnn_weight_hh_l0_dims[] = {40, 10};
const int rnn_weight_hh_l0_num_dims = 2;

const float rnn_bias_ih_l0[] = {
    0.11656521f, 0.31773821f, 0.21724235f, -0.11597589f, -0.20412038f, 0.21579857f, 0.16606417f, -0.18230672f, 0.18518156f, 0.09786983f, 
    -0.80045885f, -0.97637767f, -0.64432669f, -0.38335958f, -1.07513702f, 0.53709775f, -0.79330927f, -1.06984770f, -1.37477374f, -1.45213974f, 
    -0.25942600f, -0.09693155f, -0.12538399f, -0.17317577f, -0.28398982f, 0.25105089f, 0.09431927f, 0.31475109f, 0.15586671f, -0.03684059f, 
    0.91949135f, 0.69591945f, 1.29300094f, 1.29768538f, 0.80459344f, 0.92846775f, 0.94667387f, 0.63741106f, 1.02414107f, 1.01802051f
};
const int rnn_bias_ih_l0_dims[] = {40};
const int rnn_bias_ih_l0_num_dims = 1;

const float rnn_bias_hh_l0[] = {
    -0.05944075f, 0.30772915f, -0.13465603f, 0.01551324f, 0.30210823f, 0.11433075f, 0.04497140f, 0.09555475f, -0.03378770f, -0.06346476f, 
    -0.49373046f, -0.78858614f, -1.12462127f, 0.00717023f, -0.85741532f, 0.18409619f, -1.06395113f, -0.83852893f, -1.16530633f, -1.29199946f, 
    -0.04234824f, -0.17559348f, -0.03762336f, 0.19964929f, 0.06008453f, -0.15316136f, -0.40046835f, 0.04618865f, 0.13796034f, 0.02833163f, 
    0.66243893f, 1.11458766f, 1.25774884f, 1.44592905f, 0.89210737f, 0.80104935f, 1.04044437f, 0.64366859f, 1.12277913f, 0.65828896f
};
const int rnn_bias_hh_l0_dims[] = {40};
const int rnn_bias_hh_l0_num_dims = 1;

const float rnn_weight_ih_l1[] = {
    -0.61049306f, -0.89014357f, 0.67263263f, 0.11718086f, 1.63335204f, -0.14398581f, -1.08042789f, -2.12517476f, -0.08771864f, 0.12331844f, 
    -3.09358287f, -0.02509293f, -0.13079280f, 0.15316315f, 0.40655106f, 1.09133673f, -0.09402043f, -0.62318748f, -0.03025788f, -0.03819731f, 
    -0.14111976f, -0.56634611f, -1.49302149f, 0.49183330f, -0.85084254f, 0.32356012f, -0.39792496f, -1.36073601f, 1.40936363f, -0.75791758f, 
    -0.40174338f, -1.42077339f, 0.30135220f, 0.02873066f, 0.10437924f, 0.36275485f, -0.52745599f, 0.61572170f, 0.05788768f, -0.63098943f, 
    1.87770748f, 0.06738273f, 0.23363155f, 2.96932793f, -0.52866179f, -2.71342802f, 3.49321032f, 0.69093871f, 2.63312626f, -2.60997438f, 
    -0.44564280f, -0.93167096f, 0.29968342f, 0.69057542f, -0.25145936f, 0.28491339f, 0.35381058f, 0.06693371f, 1.26485741f, -0.47985086f, 
    0.48119381f, 2.20103908f, -1.12245107f, -0.34987450f, -0.68036336f, -0.13498697f, 2.22528195f, -0.94684434f, -2.77016091f, -0.71978778f, 
    -2.06066298f, 0.57398397f, -0.93234706f, -0.61163908f, -0.36297527f, 2.41785312f, -1.42861784f, 0.25421721f, -1.31381476f, 2.00230932f, 
    0.18378417f, -0.79569036f, -0.98969042f, -0.01287394f, -0.01650948f, -0.15324093f, -0.33877170f, -1.20206285f, 1.51193643f, -0.94760174f, 
    -1.12492394f, -1.34396470f, 0.45285940f, 0.37552825f, 0.42603293f, -0.40357909f, -1.88642895f, -0.47609356f, -0.00190195f, 0.18482822f, 
    2.28689528f, 0.25637326f, 2.92950439f, -0.65218741f, 0.99800950f, 0.65179980f, -0.23672095f, 0.15246217f, -1.95534897f, 1.53743410f, 
    -0.78299290f, 0.92505491f, 0.10577893f, -2.57797265f, 0.47226828f, 1.54154599f, -0.68561542f, -0.79870015f, -0.43135461f, 0.42971420f, 
    -0.43597886f, -0.73702806f, -0.08801124f, 0.06109397f, 0.05011383f, -0.08942910f, -0.78083992f, -0.78328431f, 1.75303209f, -0.49666044f, 
    0.01628107f, -0.27667943f, -0.24961685f, 0.14517744f, -0.26586223f, -0.25444040f, -0.20983247f, 0.27063513f, -1.11136794f, 0.03011066f, 
    3.40318465f, -0.66126615f, 0.62631249f, 0.07765222f, -0.32998475f, -1.74177575f, 3.03642869f, 1.20820713f, 2.65897870f, -2.24256206f, 
    2.13571119f, 0.38992551f, 0.35734770f, 0.78824872f, -0.47110721f, -0.73738867f, -0.80952495f, 0.85227185f, -0.18066256f, -0.61915702f, 
    1.91643739f, 1.34118342f, -2.01381540f, -2.45182467f, 0.87785971f, -0.51759535f, 2.98700213f, -1.09204233f, -1.22743165f, 0.51046419f, 
    0.14972703f, 0.19270819f, -0.57166970f, -2.39285064f, -0.00183349f, 0.61509031f, -1.91217530f, 0.14688188f, -1.45525968f, 1.15509331f, 
    -0.67010647f, -0.94265324f, 0.42620638f, 1.17850673f, 0.29470423f, 0.42470777f, -0.96575910f, -1.01654446f, 1.45348704f, -0.98930907f, 
    0.21049993f, -0.43693915f, -1.41700625f, 1.43095827f, 0.24102585f, -0.25930366f, -0.25798863f, -0.93267816f, 0.98420352f, 0.23855627f, 
    0.23931652f, 0.17306072f, 0.99495548f, -0.13540080f, 1.70604479f, -0.16539404f, 0.17253484f, -1.63546991f, -0.28700230f, 0.39149851f, 
    -1.09811020f, 0.13971420f, -0.02499741f, -0.80429190f, 0.10094845f, 0.54484963f, -0.21789525f, -0.11767096f, -0.31154999f, 0.94362354f, 
    -0.38407153f, 0.19128442f, -1.34185290f, 0.08300851f, -1.75261557f, 0.02936227f, 0.12925781f, 1.46256399f, 0.12414255f, -0.21412550f, 
    -0.38852128f, -1.51604939f, 0.52021682f, 0.18636124f, 0.26269037f, -0.02858455f, -1.47192097f, 0.46026146f, 1.34803236f, 0.11729327f, 
    1.55200338f, 0.02394802f, 0.28117347f, 1.23694730f, 0.01993380f, -1.10729599f, 0.69647861f, 0.32616001f, 0.60562211f, -1.20808482f, 
    -0.88438505f, -0.34953147f, 0.00298095f, -0.73666465f, -0.02394351f, 0.54703730f, -0.39878407f, -0.01505120f, 0.07885943f, 0.90752506f, 
    -0.29527006f, -1.59125912f, 0.37436873f, 0.25768718f, 0.00685006f, 0.15711072f, -1.36034906f, 0.43124634f, 1.80233538f, -0.05678178f, 
    1.13866341f, -0.23804213f, 0.20616652f, 1.06434035f, 0.36518699f, -0.81856132f, 0.50932550f, -0.02870562f, 0.44235927f, -1.29354262f, 
    0.18419237f, -0.04892043f, 1.00605333f, 0.03181677f, 1.44671094f, 0.00232719f, 0.02285575f, -1.03700829f, -0.10699789f, 0.23155269f, 
    0.18008861f, -1.23372889f, 0.49094686f, 0.18687746f, 0.14607948f, -0.16076280f, -1.43527520f, 0.28974989f, 1.29728603f, 0.08946428f, 
    0.35949752f, -0.60788763f, 0.67728984f, 0.41845661f, 1.44775760f, 0.01190692f, -1.15514791f, -1.13572836f, -0.58907241f, -0.08274581f, 
    -3.15154386f, 0.44755608f, -0.82331133f, 0.23268099f, 0.17296931f, 1.61136091f, 0.17188698f, -0.62913120f, 0.17873415f, -0.84021473f, 
    -0.70550865f, -0.35932526f, -1.74997056f, 0.45434627f, -1.09968781f, 0.25141874f, -0.32816154f, -1.51093352f, 1.49012804f, -0.92978954f, 
    -0.72578341f, -1.53095222f, 0.34367648f, 0.82875919f, 0.27872756f, 0.53214526f, -0.64560300f, 0.63162833f, 0.35268247f, -0.85117012f, 
    1.88251150f, 0.20719045f, 0.51021117f, 1.18138933f, 0.49017441f, -2.66041112f, 2.30337238f, 0.07674813f, 2.40310264f, -1.15926003f, 
    -0.59879023f, -0.85907483f, 0.25265363f, 0.84243530f, -0.08924632f, 0.59292895f, 0.19419011f, -0.02270734f, 1.20017755f, -0.87267274f, 
    0.17005831f, 1.26248956f, -0.32702830f, -0.29250652f, 0.38500622f, -0.02862109f, 1.48707223f, -0.06378634f, -1.18425989f, -0.45267051f, 
    -1.40834546f, -0.23228447f, 0.33196953f, -1.08582997f, 0.81501615f, 1.25820637f, -1.05161428f, -0.90451545f, -0.91395187f, 2.38989663f, 
    -0.98764670f, -0.56506103f, -0.69629371f, -0.37735197f, 0.01454562f, 0.62997323f, -0.14810604f, -1.10403144f, 0.85998660f, -0.38668194f, 
    -0.87720346f, -1.28484869f, -0.20058744f, 0.52686149f, -0.14783473f, 0.55933207f, -1.40440857f, -0.18590084f, 0.57148832f, -0.37838289f
};
const int rnn_weight_ih_l1_dims[] = {40, 10};
const int rnn_weight_ih_l1_num_dims = 2;

const float rnn_weight_hh_l1[] = {
    0.14628410f, -0.00056129f, 1.55448663f, 0.38444722f, -0.29926431f, 0.01539463f, 0.56716931f, -0.42755097f, -0.69308323f, 0.34477714f, 
    -0.02093208f, 1.07595181f, -0.57125491f, 0.18578401f, 3.15912151f, -0.50239336f, -0.33075196f, -0.67713094f, 0.39484245f, 0.61688358f, 
    1.30236983f, -0.04844982f, 0.38459688f, -0.18286929f, 0.03016952f, -0.38077509f, -0.23220032f, -0.50136441f, -0.38301238f, 0.02527302f, 
    -0.32429397f, 0.04386638f, 0.09655679f, 1.49811316f, 0.37660691f, 0.65456021f, -0.58455509f, 0.07438026f, 0.75106817f, 0.96567959f, 
    0.17182383f, 0.28054318f, 0.90695089f, 1.27155888f, 2.53903890f, -0.01508943f, -0.37193725f, -1.49082994f, -0.62973905f, 0.20114471f, 
    0.53262174f, 0.82607132f, 0.30302662f, 0.74019784f, 0.51208442f, 0.73614597f, -0.77636623f, -0.17260237f, 0.83468306f, 0.47909182f, 
    -0.46191114f, -0.24720620f, 0.26899174f, 2.79687428f, 0.59488767f, 0.84733403f, 0.68978131f, -1.23668718f, -0.57353622f, 2.21443486f, 
    -1.05311847f, -0.06351210f, -0.10905344f, -0.49043626f, 2.46415782f, -0.50629109f, -0.51195866f, -0.84929502f, -0.58408588f, -0.29147235f, 
    1.88757622f, -0.35191494f, 0.59638149f, 0.15099718f, -0.27103063f, 0.18371037f, -0.25221315f, -0.85518950f, 0.02968646f, -0.21665448f, 
    -0.08757087f, -0.40620732f, 0.27463371f, 0.75560468f, -0.04304950f, 0.73387343f, -2.08056402f, -0.43621153f, 0.01934401f, 1.18740809f, 
    0.33820769f, 0.78527129f, 0.23634899f, -0.23058794f, -0.38171217f, -0.03685257f, -0.05135248f, 0.44087923f, 0.02599947f, -0.55232584f, 
    0.15035842f, 0.34833348f, 0.05471120f, -0.39809436f, 1.92190325f, -0.54013127f, -0.96137935f, -1.35925555f, -0.16133745f, 0.01864918f, 
    1.43112373f, 0.05210622f, 0.44127288f, -0.54598051f, -0.42714959f, 0.62095815f, -0.64286202f, -0.10723599f, 0.20884268f, -0.34325796f, 
    0.12538956f, 0.74733895f, -0.18088147f, 0.34761578f, -0.37148616f, 0.49444330f, -1.78779459f, -0.04514742f, 0.36541766f, 0.86247605f, 
    -1.23805130f, 0.09900025f, 0.23441553f, -0.18801975f, 1.99405396f, -0.44318879f, 0.16078176f, -1.84146512f, -0.60772389f, 1.36547494f, 
    -0.95682555f, -0.23137021f, 0.15391603f, 0.17759369f, 2.01115060f, -0.31666195f, 0.00787109f, -0.52982730f, -0.42603484f, 1.02606297f, 
    1.86107171f, 1.12493241f, 0.24513516f, -1.11319137f, -0.55411047f, -0.75915009f, -1.96270573f, -0.69485867f, -0.92951435f, 0.20794114f, 
    -0.36028203f, 0.11229297f, 0.04544897f, -0.65785259f, 3.79475832f, -0.13058770f, -0.67108351f, -0.31461152f, -0.68965995f, 0.09427613f, 
    0.77674562f, -0.50511616f, 0.90611321f, 0.05011947f, -0.42000410f, 0.31066588f, 0.86356926f, 0.58357465f, -0.51190031f, -0.12637939f, 
    0.92611802f, 0.15883668f, -0.26280415f, 0.90765452f, 0.41515687f, 0.74013591f, -2.24941587f, -0.41735774f, 0.04501127f, 0.88705045f, 
    -1.03901708f, 0.22298190f, 0.01245774f, -0.17725126f, -0.08544426f, -0.06281044f, 0.52800536f, 0.34143731f, -0.70427448f, -0.23531602f, 
    -0.02904276f, -0.50868291f, 0.29719847f, 0.03399337f, -0.33547160f, -0.41385084f, 0.01986763f, -0.13783935f, 0.16255301f, -0.02875603f, 
    -0.10289128f, -0.12023624f, -0.53255773f, -0.24189770f, -0.15690470f, -0.03531052f, 0.30777586f, 0.10787722f, 1.27919340f, -0.01609233f, 
    -0.24275324f, 0.17666122f, -0.00792385f, -0.55856258f, -0.11123981f, -0.67917973f, -0.67649066f, -0.06347609f, -0.19010790f, -0.17923698f, 
    -0.37453884f, 0.04327442f, -0.34189999f, -0.18008672f, -0.75961500f, 0.40328258f, 0.41718513f, 0.69056696f, 0.02587843f, -0.45718586f, 
    -0.19951952f, 0.04793481f, 0.13631609f, 0.56370181f, -0.21282479f, -1.41603720f, -0.17912176f, -0.44555184f, 0.32723019f, -0.39645153f, 
    -0.24440396f, -0.23270503f, 0.13154359f, 0.44355029f, 0.17985517f, 0.25036991f, -1.20957792f, -0.17374112f, 0.26141596f, 0.01127561f, 
    -0.00431632f, -0.01429106f, -0.00364822f, 0.35254842f, 0.32262883f, 0.51979607f, -0.26386029f, -0.52629763f, -0.27088737f, -0.24719560f, 
    0.32743576f, 0.00723715f, -0.62826705f, -0.00418140f, 0.06912463f, -0.11659270f, -0.05134834f, 0.01590606f, -1.10354853f, -0.08647140f, 
    -0.50899202f, -0.31319374f, -0.13534860f, 0.12055209f, -0.15613982f, 0.35131198f, -0.04520950f, 0.26983371f, 0.24501222f, -1.10214055f, 
    0.87425399f, 0.07752999f, 1.89328718f, -0.81734174f, 0.81837773f, -0.88590086f, -0.87631744f, -0.02597878f, -0.80042088f, -0.28175679f, 
    -0.15500931f, 0.47652793f, 0.68455797f, 0.18810283f, 6.48695946f, -0.91282690f, -0.74714130f, -2.21924901f, -0.42779934f, 0.15500447f, 
    3.60664034f, 0.09007321f, 0.86779809f, 0.22398047f, -0.25491011f, 0.35081387f, 0.24710901f, -0.56967390f, 0.27845776f, 0.59251875f, 
    -0.66737711f, -0.04063801f, 0.66084731f, 0.55860114f, 0.99943203f, -0.11551814f, -2.84262133f, -0.38306946f, 0.37235323f, 1.44004512f, 
    0.75161147f, 0.42119765f, -0.14418702f, 1.21004069f, 1.29493928f, 0.66416520f, -0.33421239f, -1.41903162f, 0.52078253f, 0.72955179f, 
    -0.07590761f, 0.43630609f, 0.82493985f, 0.30685174f, 2.17347050f, 0.38838184f, -1.07295418f, -0.62694895f, 0.55896914f, 0.42962724f, 
    -0.40472698f, 0.46914473f, -0.15339334f, -0.22059271f, -0.59781939f, -0.91462368f, -1.18015671f, -0.97670323f, -0.12834151f, -0.34312665f, 
    0.86029589f, 2.08865094f, -1.45847774f, 1.00428891f, 1.79074931f, 1.47130382f, -0.83829015f, -3.46915245f, 1.38057911f, 1.17726469f, 
    2.81774068f, 0.09556083f, 1.22588038f, 0.35670951f, -0.49318188f, 0.06937009f, 0.17843421f, -1.13931906f, -0.34844974f, 0.46084160f, 
    -0.38793373f, 0.15639593f, 1.01837790f, 0.91077018f, 0.14495306f, 0.86488038f, -2.58105612f, -1.18106055f, -0.47942030f, 1.27652705f
};
const int rnn_weight_hh_l1_dims[] = {40, 10};
const int rnn_weight_hh_l1_num_dims = 2;

const float rnn_bias_ih_l1[] = {
    -0.59452564f, -0.32123330f, -0.49828267f, -0.10871246f, -0.56331873f, -0.29385939f, -0.41842759f, -0.71069980f, -0.09544412f, -0.62790406f, 
    -0.61514044f, -1.37074053f, -0.55822206f, -0.57429242f, -1.51147604f, -1.26863527f, -0.97447675f, -1.41281116f, -0.67729884f, -0.77380067f, 
    -0.03784422f, 0.07595938f, 0.15498944f, 0.08055022f, 0.12431369f, 0.16034329f, 0.08776436f, 0.07742696f, -0.01242176f, -0.04682266f, 
    0.44954199f, -0.35945013f, -0.26839313f, -0.03492215f, 0.22271653f, 0.37300280f, 0.44019014f, -0.38349608f, 0.20128746f, 0.36689746f
};
const int rnn_bias_ih_l1_dims[] = {40};
const int rnn_bias_ih_l1_num_dims = 1;

const float rnn_bias_hh_l1[] = {
    -0.37085143f, -0.79110867f, -0.22619416f, -0.38393331f, -0.64733517f, -0.35882130f, -0.28557354f, -0.64119732f, -0.42935473f, -0.08043243f, 
    -0.34524137f, -1.26802981f, -0.35137963f, -0.41116226f, -1.13429999f, -0.78355640f, -0.78865141f, -1.03489602f, -0.81844527f, -0.81969577f, 
    0.02848715f, -0.08365461f, -0.16502614f, -0.08613407f, -0.19086820f, -0.15898442f, -0.05609869f, -0.04164850f, 0.01480674f, 0.03946509f, 
    0.04656771f, 0.05676800f, 0.01845200f, 0.31375673f, 0.23126082f, 0.05070747f, 0.10353904f, 0.04335349f, 0.46852210f, 0.25966066f
};
const int rnn_bias_hh_l1_dims[] = {40};
const int rnn_bias_hh_l1_num_dims = 1;

const float rnn_weight_ih_l2[] = {
    0.59694272f, 0.35505593f, -0.02098100f, 0.19099823f, -0.36410412f, -0.06198331f, -0.67061663f, 0.37971535f, 0.12431901f, 0.80752707f, 
    0.92416507f, 1.61225617f, 0.31698629f, 1.00954151f, 1.75295734f, 0.90625727f, 0.03733435f, -1.62572467f, 0.00235919f, -0.90758562f, 
    0.42043677f, -0.12154286f, -0.43676755f, 1.20872843f, 0.64484775f, 1.15450847f, -3.68537211f, 0.45900837f, 0.54415566f, 2.02820468f, 
    0.55959463f, 0.02949852f, 2.32909536f, -0.88984370f, -0.11506902f, -0.33218461f, -1.57728028f, -0.83197403f, -1.37188947f, -0.17313580f, 
    1.01267791f, 0.62821782f, -0.35932812f, 0.48464575f, 3.33818030f, -0.29812035f, -0.12247691f, -2.07532644f, 0.25702155f, -0.04812038f, 
    2.26563430f, 0.53485143f, 1.05340755f, 0.28139907f, -0.38372669f, 0.04432486f, 0.25563079f, 0.32788226f, 0.35800889f, 0.30302814f, 
    1.16037095f, 0.29855901f, 0.70964164f, 0.09295968f, -0.09037081f, 0.21136633f, -0.72305393f, -1.01239550f, 0.16226509f, 0.12613894f, 
    1.15619862f, 0.90452790f, -1.09089339f, -0.13732363f, 1.28037882f, -1.31521320f, -0.22849739f, -0.82895583f, 0.78212142f, -0.33003247f, 
    -0.65943295f, -0.55052501f, 0.44998032f, 0.72007495f, 0.03740826f, 0.60900658f, -1.28837407f, 0.14990370f, -0.75928873f, 0.79684651f, 
    1.37494600f, 0.05232157f, -0.89654523f, -0.11701199f, 1.81730855f, -0.06327354f, -0.31802636f, -0.49188790f, 0.64477777f, -0.17518535f, 
    1.08225918f, 0.10811020f, -0.56766826f, -1.84960365f, -0.96314049f, -0.35354805f, 1.01613796f, 0.28236669f, 0.99660438f, -1.98004901f, 
    -0.52156055f, 0.08363928f, -1.04889607f, 1.29010773f, -1.64902580f, -0.59203386f, 1.28037322f, 0.67854941f, 0.45927659f, -0.91520286f, 
    -0.05844976f, 0.12989411f, -0.54432231f, -0.37270048f, -0.26659885f, 0.49110854f, 1.21645916f, 0.70018780f, -0.00203284f, -0.14636698f, 
    -1.03568232f, 0.03999009f, -0.04571339f, -0.30578604f, -0.29244697f, -0.12712903f, 0.71005273f, -0.91188812f, -0.10290390f, -0.78253734f, 
    0.66164768f, 0.64054537f, -2.20946860f, 0.52318633f, 1.64153683f, 0.44841179f, 0.35018691f, 1.43014479f, 1.15406168f, -0.86780012f, 
    -0.25313342f, -0.27374682f, -0.99047840f, 0.35381544f, 0.40946406f, 0.43403074f, 0.33173800f, -0.04635708f, -0.90489060f, 0.74296165f, 
    -0.52871341f, 0.95257229f, -1.07538784f, -0.45129600f, 0.26746681f, -0.06345917f, -0.22017993f, 0.06016360f, 0.27238643f, -0.68319970f, 
    -0.87712127f, 0.52416521f, -1.30821228f, 1.31447351f, 1.39925981f, 0.12252256f, 2.78160620f, -0.92473996f, 0.41655958f, 0.67907977f, 
    -1.02098513f, -0.21982294f, -0.47608817f, -0.75880522f, -0.10235853f, 0.54600024f, 1.54801095f, 0.69645733f, 0.09882011f, -0.18925969f, 
    1.27762711f, 0.63142788f, -1.17431605f, 1.13977683f, 0.28932777f, 0.73034704f, -0.54262221f, 0.72122723f, 0.29518893f, 0.77266777f, 
    0.75932330f, 0.10446848f, 0.32021153f, -2.07458663f, -0.23317002f, -0.53424561f, -1.72516310f, 0.00343274f, -0.03973638f, -1.92223108f, 
    -0.45773122f, -2.76098037f, -0.17667671f, 0.10042053f, 1.09985805f, -1.36075664f, -0.05521806f, 2.28884506f, -0.00072478f, 0.22537299f, 
    0.46441880f, -0.10262419f, -0.24053556f, 1.81991065f, -0.00706804f, 0.41935444f, 1.61010444f, 0.20269099f, 0.24766928f, 1.73755014f, 
    2.30161619f, 0.10207792f, -2.63103151f, 0.15452087f, -0.01676160f, 0.02636739f, 0.29349062f, 0.16026475f, 2.03078961f, 0.23424882f, 
    0.20996763f, 2.68437481f, -0.12373421f, -0.07152057f, -1.27498305f, 1.44777095f, 0.00318909f, -2.64531779f, -0.04324345f, -0.24257305f, 
    1.72155142f, -0.15548700f, -2.30834270f, -0.04318730f, -0.12182404f, -0.09364539f, -0.04624103f, 0.17553601f, 1.59281886f, 0.21292874f, 
    1.50672281f, 0.15601258f, -1.85727990f, -0.12044742f, 0.21311668f, 0.16685927f, -0.33822426f, -0.20040709f, 1.54497445f, -0.07557956f, 
    0.37563181f, 2.22169590f, -0.10136353f, 0.08965679f, -0.63671190f, 1.55657327f, -0.41760084f, -1.63124883f, 0.04044005f, 0.06085674f, 
    -0.64719677f, -0.02730078f, 0.34011304f, 1.77850318f, -0.13087077f, 0.39935711f, 1.17549324f, 0.01560101f, -0.30262858f, 2.01823092f, 
    -0.65632129f, 2.35783625f, 0.05655734f, -0.12581171f, -0.98204547f, 1.50110233f, 0.17167847f, -1.75469553f, -0.19039367f, -0.41691396f, 
    0.17467825f, -0.58299184f, 0.05725298f, 0.28223979f, 0.11267294f, -0.10124068f, -0.49485010f, 0.74759412f, 0.41131309f, 1.05042040f, 
    0.94278240f, 1.21814978f, 0.35349324f, 1.18885350f, 2.50074315f, 0.60003924f, -0.16807528f, -0.87195897f, 0.25958166f, -1.40322161f, 
    0.21721517f, 0.37683612f, -0.38320518f, 1.22873461f, 0.76871920f, 1.16515160f, -3.05148721f, 0.46127436f, 0.34024400f, 1.23185778f, 
    -0.97953588f, -1.19094419f, 1.22049177f, -0.44160306f, -0.09769770f, -0.63161451f, -0.07277606f, 0.07247955f, -0.86601055f, 0.49641323f, 
    0.06130636f, 0.21263947f, -0.21921244f, 0.25921831f, 2.75502539f, -0.76919037f, -0.13412403f, -2.05664110f, 0.13007447f, -0.13590078f, 
    2.14430785f, 0.62207443f, -0.00217810f, 0.04765132f, -0.02655583f, -0.12717707f, -0.55801165f, -0.03826150f, 0.37014681f, 0.32900566f, 
    1.06508267f, 0.48875284f, 0.37283379f, -0.36134857f, 0.41086173f, 0.14004223f, -0.62434262f, -0.72977096f, 0.15157934f, -0.10175780f, 
    1.15452302f, 0.64062101f, -0.89282918f, 0.10403552f, 1.26108456f, -1.22560930f, -0.13262406f, -0.71887296f, 0.57344759f, -0.17848256f, 
    -0.53539902f, -0.30090988f, 0.04686426f, 0.44337985f, 0.59951389f, 0.73297423f, -1.09031880f, -0.15658775f, -0.28045100f, 0.76639122f, 
    1.31778336f, 0.20305985f, 0.13332283f, -0.15003210f, 2.00587559f, -0.15828612f, -0.81546158f, -0.53094357f, -0.01145098f, -0.36229590f
};
const int rnn_weight_ih_l2_dims[] = {40, 10};
const int rnn_weight_ih_l2_num_dims = 2;

const float rnn_weight_hh_l2[] = {
    -1.17823529f, 0.07760458f, 1.94050860f, 0.27437618f, 0.38558316f, -0.09598164f, -0.70472991f, -0.18044588f, 1.68975914f, -1.03206706f, 
    -0.81622720f, -1.60701489f, 0.56325638f, -0.11094853f, -0.94145781f, 0.92427129f, 0.41609219f, 0.23652029f, -0.55632061f, 0.25969017f, 
    0.56474006f, 0.44808930f, 0.35221031f, -0.57588440f, -0.09075658f, -0.06973855f, 0.95947748f, 0.01755505f, 0.46765867f, -0.54159307f, 
    -0.10579421f, -0.23383294f, 1.17439294f, 1.16037679f, 0.62521625f, 2.10441089f, 1.69247174f, 2.21944571f, -0.31079423f, -1.04334426f, 
    0.37451068f, -2.19646120f, -0.39127746f, -0.55287433f, -1.09212554f, 0.03278805f, 0.92702198f, -0.98404223f, -0.17012455f, -0.35263658f, 
    0.84530658f, -0.45951051f, -0.08233240f, -1.24389267f, 0.34297159f, 0.43200967f, -0.15307301f, 0.10254484f, -0.71494484f, 0.22143215f, 
    0.46584466f, 0.05597076f, -0.62169713f, -0.52452773f, -0.30110788f, -0.43604863f, 0.38613835f, 0.19251083f, 1.26082134f, 0.36734870f, 
    0.28792432f, -2.29267454f, -0.49484241f, -0.54777747f, -1.51936078f, -0.50383949f, 0.32829180f, -1.13905609f, 0.30991310f, 0.99579704f, 
    2.01423120f, 0.44338888f, -1.39087677f, 0.81893212f, 0.10672386f, -0.55748838f, 1.25140548f, -0.54713941f, 0.73870224f, -0.45724744f, 
    -0.37151349f, -1.35940254f, 0.90787691f, -0.85867083f, -0.72541654f, 0.35030940f, 0.55434155f, -0.68728089f, 0.36956590f, -0.41805124f, 
    2.08904958f, -0.74140710f, -1.22576106f, -0.94971609f, -0.01833916f, 0.55805719f, 1.86147678f, -0.45058981f, -0.89785868f, 0.56904989f, 
    0.31150785f, -1.50985956f, 0.01398270f, -0.22710183f, 0.17489225f, 0.58139908f, 1.29778111f, -0.02270662f, 0.32051599f, 1.09422970f, 
    0.60785890f, 0.52574384f, -0.60367399f, 0.92335749f, -0.59727979f, 0.04095317f, -0.07195453f, -0.31229267f, 0.80428815f, 0.59258616f, 
    0.50727886f, 0.30254641f, -0.04489177f, -0.93695939f, -0.45381063f, -0.10424024f, -0.18734777f, 0.24568771f, 1.54748476f, 0.70043039f, 
    0.07441559f, -0.51475441f, -0.41056526f, -0.38856211f, -0.91423547f, -0.16430923f, 0.09730691f, -0.06104605f, 0.87460130f, -0.15529492f, 
    0.51870471f, -0.60503244f, -0.16681130f, -0.55241859f, -0.32296699f, 0.49260944f, -0.29801321f, 0.20852701f, 0.51115382f, 0.10211636f, 
    1.01390409f, -0.17214347f, -1.21590877f, 0.56053060f, 0.26818994f, 0.25151128f, 0.53405267f, 0.39395794f, 0.13827088f, 0.19332969f, 
    0.80105793f, -0.44945565f, -0.87380368f, -1.35502136f, -0.88341641f, -0.37818182f, -0.22325380f, -0.57670099f, 1.54268312f, -0.01375134f, 
    -0.50722367f, 0.24650782f, 0.34841141f, 0.41496676f, -0.11926277f, 0.72651762f, 0.12944663f, 0.81410086f, 1.18550122f, 0.67226195f, 
    -0.21007732f, -1.36846137f, 0.60220122f, -0.99531573f, -0.12345096f, 0.21655247f, 0.50882387f, 0.37685448f, 1.19297040f, -0.05813359f, 
    -0.65552616f, 0.39123976f, -0.36154419f, 0.18999670f, 0.25013185f, -0.21676168f, -0.00938430f, -0.02586872f, 0.23510878f, 0.02210712f, 
    -0.18079752f, -0.44119638f, -0.03400733f, 0.21639159f, -0.74308342f, -0.18883444f, 0.11270581f, 0.58831030f, -0.07024035f, 0.48015219f, 
    0.32379040f, -0.06557187f, -0.71535093f, -0.11044183f, -0.39844108f, 0.30896470f, -0.30666700f, 0.01920084f, -0.00977156f, 0.21550417f, 
    0.10742922f, -0.36375076f, 0.11823691f, -0.67995554f, 0.12707146f, -0.04870266f, -0.32055613f, -0.00385574f, -0.09382173f, -0.27788270f, 
    0.15163186f, -0.46537495f, -0.18323593f, 0.03704616f, -0.23959537f, -0.19683111f, 0.11633586f, -0.39761430f, 0.35896665f, -0.11857291f, 
    -0.01021292f, 0.47101614f, -0.23714820f, 0.44837111f, 0.23573388f, -0.61724961f, -0.87215626f, 0.25478762f, -0.10506727f, 0.06251482f, 
    -0.02851888f, 0.04826357f, 0.16320898f, 0.78943717f, -0.07834519f, 0.46484578f, -1.13636994f, 0.29966578f, -0.16579972f, -0.17355444f, 
    0.34873605f, -0.31123942f, -0.45840225f, -0.38947776f, 0.26027858f, -0.04602952f, 0.27584314f, -1.33170688f, 0.82509625f, 0.03112146f, 
    -0.74289364f, 0.19698663f, 0.25035638f, 0.39846882f, 0.09382044f, 0.10250878f, -0.12751018f, 0.29029828f, -1.48774707f, -0.22378545f, 
    -0.19634321f, -0.13084030f, -0.24779406f, 0.22683185f, 0.11304510f, -0.01116956f, 0.20558126f, -0.73742837f, 0.15314266f, -0.41960740f, 
    0.58284235f, -1.08341956f, 0.18142782f, -0.03830918f, 0.57991004f, -0.03756434f, 0.32702377f, -0.18518852f, 0.09662452f, 0.06876726f, 
    0.29304731f, -0.20545298f, 0.00639038f, -0.31982189f, -2.33325505f, -0.17021531f, -0.00005517f, -1.92677224f, 0.75262141f, -0.15976338f, 
    0.51859319f, -0.85442722f, 0.45146054f, -0.81661433f, 0.48375419f, 0.33378369f, 1.26379466f, 0.43357155f, 0.84720206f, -0.06646183f, 
    0.56500036f, 0.37560669f, -0.15139009f, -0.34886441f, -0.87067223f, -0.05066891f, 0.13595024f, -0.12251538f, 0.36535856f, -0.77160251f, 
    -0.54481161f, -4.06398249f, 0.35026148f, -1.50140953f, -0.11381739f, -0.49943715f, 1.15601850f, 0.31125006f, 0.67205489f, 1.33225358f, 
    0.54701245f, -0.67228395f, 0.30201113f, -2.52936244f, -1.03900206f, 0.10865569f, -0.19065973f, -0.53391731f, 0.55574906f, -0.49583796f, 
    0.42831656f, -0.32404882f, -0.29315519f, -0.95117521f, -0.30829903f, 0.10074383f, 0.51941419f, 0.55127585f, 1.82586479f, 0.05146150f, 
    0.00617935f, -3.07065082f, -0.00771775f, -0.31458345f, -0.91222095f, 0.26228473f, 0.74264312f, -0.91287136f, 1.02891684f, 1.29943001f, 
    1.89645255f, -0.39559937f, -0.49747926f, 0.52489388f, 0.57154310f, 0.09602292f, 1.63299501f, 0.77322918f, 0.71504796f, -0.30838704f, 
    0.45929667f, -1.80566180f, -0.08041230f, -1.79211235f, -0.89198935f, -1.36571491f, -0.52245015f, -0.89646238f, 1.17023027f, -0.12258610f
};
const int rnn_weight_hh_l2_dims[] = {40, 10};
const int rnn_weight_hh_l2_num_dims = 2;

const float rnn_bias_ih_l2[] = {
    -0.27135631f, -0.71344656f, -0.35076812f, -0.37490150f, -0.40823120f, -0.44286108f, -0.15095888f, -0.30025178f, -0.47117594f, -0.60787421f, 
    -0.83808839f, -1.09702575f, -0.53337008f, -0.84905183f, -1.21615613f, -0.61117041f, -0.78084832f, -1.00871587f, -0.78633654f, -0.95670468f, 
    0.06230553f, -0.11786710f, -0.16447130f, -0.03646408f, -0.21566468f, -0.07898972f, 0.17087221f, -0.02465581f, 0.00029159f, -0.25268218f, 
    0.11356279f, -0.09670456f, 0.00234952f, 0.07118169f, -0.42025885f, 0.04584009f, 0.47170478f, -0.07320781f, 0.10082292f, 0.11734787f
};
const int rnn_bias_ih_l2_dims[] = {40};
const int rnn_bias_ih_l2_num_dims = 1;

const float rnn_bias_hh_l2[] = {
    -0.12663043f, -0.24116719f, -0.87619883f, -0.09140673f, -0.60705233f, -0.16946420f, -0.43432558f, -0.45950603f, -0.23793121f, -0.36272007f, 
    -0.96556604f, -1.09350407f, -0.70327932f, -0.58538365f, -1.48819697f, -0.73325157f, -1.06411922f, -0.96955788f, -0.92407942f, -0.88148826f, 
    -0.06341164f, 0.12105315f, 0.15924999f, 0.04163077f, 0.20940503f, 0.07286220f, -0.17340729f, 0.02432009f, -0.00157275f, 0.25041971f, 
    0.13434812f, -0.05613675f, -0.04950640f, 0.23882505f, -0.15789403f, 0.08262826f, 0.43133593f, -0.02451858f, 0.41089025f, 0.11527282f
};
const int rnn_bias_hh_l2_dims[] = {40};
const int rnn_bias_hh_l2_num_dims = 1;

const float rnn_weight_ih_l3[] = {
    0.57474792f, 0.17295420f, -0.51597947f, -0.54534727f, 0.37816769f, -0.31880477f, -0.14949670f, 0.19948137f, -0.96538371f, -0.14942703f, 
    -0.54928458f, -0.32381594f, -0.58742708f, 0.14563367f, -0.04907111f, -0.40473667f, 0.11458806f, -0.24885686f, -0.45200038f, -0.18862624f, 
    0.07269182f, 1.34067750f, 0.16911583f, 0.05274988f, -0.40844375f, -0.43599442f, 0.55657202f, -0.63713098f, 0.93804336f, -0.66062999f, 
    -1.07103300f, 0.14339827f, -0.60268366f, -0.33010760f, -1.31848443f, 0.17030784f, 0.43098575f, -1.20225692f, -0.00978638f, -1.09637511f, 
    -0.27415949f, 0.01702789f, -0.16833457f, -0.19333476f, -0.02698787f, -0.53690797f, 0.24123509f, 0.90443790f, 0.27406454f, 0.53645808f, 
    -0.39887610f, -0.32062253f, 1.09889209f, 0.00131254f, 0.22187766f, 0.77247298f, 1.37101769f, 0.54051661f, 0.05867290f, -0.67252755f, 
    -1.37273431f, -0.95087898f, 1.34932864f, -0.52292734f, 0.64431578f, 1.88302898f, 1.70306265f, 0.59807032f, 1.12971151f, 0.19792789f, 
    0.81206179f, 0.12938891f, -0.18457182f, -0.18754020f, -0.30842820f, -0.48836970f, 0.32709739f, 0.08991345f, 0.70407826f, 0.30589727f, 
    0.20328292f, -0.14992255f, 0.58196771f, -0.55434394f, 0.01733746f, 0.28427073f, 0.09819822f, 0.31985408f, -0.17901033f, -0.52579057f, 
    1.16248834f, -0.65058655f, 0.30036604f, -0.56226182f, -1.22352660f, -0.44963938f, -0.35803413f, -0.43813685f, 0.20549157f, -0.44169912f, 
    0.88187861f, 0.70591605f, -1.36174428f, 1.04055619f, 0.10930099f, 0.39720985f, 0.77936578f, 0.05435270f, -0.20055985f, -0.32817042f, 
    0.11361154f, -0.01634196f, 0.01671343f, 0.26412052f, -0.86715919f, 0.34233806f, -0.13426176f, -0.21214877f, 0.00429868f, -0.07567713f, 
    -0.66071475f, -0.18356240f, -0.68955219f, 1.42899001f, -1.11774015f, 0.62932181f, 1.12612116f, -1.33424783f, -1.72543728f, 0.07746598f, 
    1.23332834f, 0.53712380f, -2.29189777f, 0.67084903f, -0.10405539f, -0.57231367f, 0.08722816f, -0.24130961f, -0.82374752f, -0.88076508f, 
    1.16113591f, -0.72825146f, -2.92472577f, -0.39101407f, 0.12171208f, -0.12394461f, 0.53417516f, -1.18313968f, 1.23181736f, -0.22118324f, 
    -0.73938680f, 0.23940462f, 0.18598066f, 0.77961487f, 0.47232297f, -0.04466775f, 0.16089649f, 0.20258003f, 0.75128287f, 0.21175386f, 
    -0.16528982f, 0.87707925f, -0.64133823f, -2.40503550f, -0.26597464f, -1.95682693f, -2.53219318f, 0.21561432f, 2.59676981f, 3.52013230f, 
    -1.22351003f, -0.63248873f, -1.20632613f, 2.16479468f, 0.47150886f, -0.25650948f, 0.55108440f, 0.83467090f, -2.04798651f, 1.67673278f, 
    0.29895735f, -0.08338579f, 0.31810594f, 0.61712527f, 0.09531170f, 0.42558187f, -0.43815705f, -0.05102006f, -0.37229702f, 0.20048438f, 
    0.29608747f, -0.05919391f, 1.21582484f, 1.05887187f, 0.38542113f, 0.73580027f, 0.39356941f, -0.11568140f, 0.54395765f, 0.38368788f, 
    -3.02538800f, -0.09663165f, 3.95680237f, 0.04971599f, 0.16587260f, -0.03893556f, -0.45419654f, 0.02167304f, 2.79242063f, 0.06576776f, 
    -0.09206095f, -0.43999022f, 0.38451451f, -0.10232448f, 0.48965207f, -0.61718160f, -0.29002765f, 0.39419222f, 0.11225049f, 0.65454787f, 
    0.07959952f, -6.62482643f, 0.14502175f, 0.08804747f, 8.43361092f, 0.57978863f, -0.04438330f, 6.55098391f, 0.18947808f, 5.40294981f, 
    1.12305903f, 0.08265478f, -1.22789216f, -1.28438103f, -0.13008536f, -1.27250016f, -0.52949643f, -0.51742291f, -0.81707317f, 0.58773822f, 
    -0.01721093f, 0.14458033f, 0.35984936f, -0.05389360f, -0.07778418f, -0.14902090f, -0.11610001f, -0.05039762f, 0.18592528f, -0.03059720f, 
    -0.25801525f, 0.38746291f, 2.03022122f, 0.87392652f, -0.59771305f, 1.44635403f, 0.86763710f, 0.17012721f, 0.79554963f, -0.24736193f, 
    0.53669673f, 1.04463363f, -0.88654345f, 1.27464235f, -0.66703886f, -0.60944051f, -0.87559658f, -1.18913484f, -0.88062572f, -0.36496115f, 
    -0.12538646f, 0.77602857f, 1.01496089f, -0.26562619f, -0.72138947f, -0.65521282f, -0.66109645f, -0.87890601f, 0.62207311f, -0.38131526f, 
    -0.16140001f, -0.00600377f, -0.33380032f, -1.76726747f, -0.11518938f, -2.32570052f, -1.70012450f, 0.01327576f, 0.17681696f, -0.00954169f, 
    0.73017991f, -0.05169582f, -0.01121066f, -0.50485259f, 0.16092537f, 0.27929285f, 0.01293777f, 0.02467412f, 0.03408030f, -0.19405952f, 
    -0.37064949f, -0.23067924f, -0.30374634f, -0.05309981f, 0.09141669f, 0.36297032f, -0.01208521f, 0.58809960f, -0.67636400f, 0.09884282f, 
    0.09729662f, -0.77715003f, 0.06134536f, -0.47681269f, 0.05804436f, -0.45383984f, 0.05199202f, 0.00330895f, -0.12786366f, 0.27471998f, 
    -0.38712770f, 1.15925002f, -0.28464565f, -0.15143596f, 0.23095676f, -0.32664081f, 0.21479054f, -0.01276882f, -0.33269307f, 0.01577406f, 
    0.22044002f, 0.27697071f, -0.82489145f, 0.25906220f, -0.57177502f, 1.05679727f, 0.27248222f, -0.59336573f, -0.29636255f, -1.28075254f, 
    0.25743702f, 0.13956949f, 0.30959764f, -1.58729506f, -0.33682159f, -0.89448839f, -0.28088161f, 0.15920973f, 0.65981847f, -0.23655888f, 
    -0.94133359f, 0.17978412f, 0.35443154f, -0.50786763f, -0.03417288f, -0.30066302f, 0.23716351f, 0.02502689f, 0.57343805f, -0.23354881f, 
    -0.07757356f, -0.25092798f, 0.44305575f, -0.32843202f, 0.19595043f, 0.28265202f, -0.05605114f, 0.62220883f, 0.81226456f, 0.20487323f, 
    -0.45102647f, -0.38645050f, 0.88610834f, -0.57259309f, 0.01922211f, -0.12759519f, 0.50243682f, 0.62903523f, 0.92796201f, 0.42574432f, 
    0.14144614f, -0.20747538f, 0.22378807f, -0.52631867f, 0.07391232f, 0.09190304f, 0.03053487f, 0.43937695f, -0.59123313f, -0.52399534f, 
    1.23005593f, 0.39963043f, -0.64321274f, -1.42621076f, -0.21352646f, -0.48794213f, 0.29328674f, -0.20602001f, -0.09860677f, 0.56583911f
};
const int rnn_weight_ih_l3_dims[] = {40, 10};
const int rnn_weight_ih_l3_num_dims = 2;

const float rnn_weight_hh_l3[] = {
    0.06862177f, -0.21347086f, 1.25623274f, 0.16042821f, 0.33827069f, 1.07515943f, -1.58897543f, -0.53150123f, 0.40807265f, -0.30291125f, 
    0.62702924f, 0.63030344f, 0.47544086f, 0.29201594f, -0.27284032f, -0.25088382f, -0.29345670f, -0.30301142f, -0.67999834f, -0.28979498f, 
    0.06200140f, -2.12996793f, -0.66325217f, 0.13586935f, -0.50912154f, 0.29993078f, -0.25304687f, -1.06501305f, -0.17929725f, -0.14454326f, 
    0.46901351f, 0.68246818f, 0.12848665f, -1.55080724f, 0.67835081f, 1.12443900f, -0.46049586f, -0.19997478f, 0.19643274f, -0.81440878f, 
    0.61189139f, 0.00333839f, -0.65126193f, 0.31973287f, 0.79512304f, 0.02603744f, 0.57886744f, 1.83191311f, 0.09410050f, 0.77304488f, 
    -0.26411462f, 0.13958751f, -0.26075277f, 0.04479468f, 0.02155605f, -0.43568787f, -1.29883420f, -1.17521632f, 0.07321101f, -1.59050858f, 
    -0.36668694f, 0.90015024f, -2.80057263f, -0.83542782f, 2.05830550f, -0.50741303f, 0.09934904f, 2.26627755f, 0.52551115f, 0.57877815f, 
    -0.93704885f, -0.78271461f, -0.24526590f, 0.13888584f, -0.27324426f, 1.38826168f, -0.13879472f, 0.53871751f, -0.02855480f, -0.03255688f, 
    -0.63167155f, -0.31965402f, 0.08443107f, 0.62175101f, 1.15566707f, 0.99576688f, -1.56691682f, 1.27637815f, 0.36186248f, -1.63234019f, 
    0.56890315f, 0.63753313f, 0.51745588f, -0.37146574f, 2.44149494f, 0.76670128f, -2.33386087f, 0.43602878f, 0.84608722f, -1.77708006f, 
    -0.26381961f, -0.18871158f, -0.08306599f, -0.28526005f, -0.00216097f, -0.06528002f, 1.13076651f, 0.76778263f, 1.25582850f, -0.03226583f, 
    -0.05684094f, 0.42179978f, -0.35243249f, -0.37197295f, 0.43904498f, 0.45287189f, 0.12390607f, 0.25687242f, -0.47118133f, 0.55936599f, 
    0.24706447f, 0.64599967f, -0.41991636f, 0.60301000f, 0.04063253f, -1.05693042f, -1.29094362f, 0.13118550f, 0.51925164f, 1.02278638f, 
    -0.14014396f, 0.46681589f, 0.40701860f, -0.51569813f, 0.85048759f, 1.35827708f, -2.18099546f, -0.68759096f, -0.06914867f, -0.62572056f, 
    0.11069956f, 1.60759234f, 0.73304057f, -1.62303317f, 0.13154966f, -1.01165843f, 0.38047814f, -0.45880315f, -0.21134579f, -0.05804652f, 
    0.78691590f, 0.22075376f, 0.58046359f, -0.52030832f, -0.37681976f, -0.38242272f, -0.05839715f, -1.16929364f, 0.10814877f, 0.00248019f, 
    2.14775634f, 1.40300393f, 1.74631059f, -0.13653998f, 0.44755176f, 1.18824053f, -2.00113630f, -2.48022795f, -0.44458529f, 2.41601396f, 
    0.15849718f, -0.24874423f, 0.75022316f, -0.72863072f, 0.17969544f, -1.38903046f, 0.16401052f, -0.03963771f, -0.26568559f, 0.02045546f, 
    0.49949759f, -0.58895481f, -0.08713449f, 0.39769128f, 0.71436846f, 0.32717830f, 0.28184381f, 0.15201867f, 0.50784761f, -0.00793680f, 
    -1.35304916f, -0.53760725f, -0.97789603f, 0.35415888f, -0.36175248f, -0.98944873f, 0.41566187f, -0.19474731f, -0.38731998f, -1.01390386f, 
    0.35522464f, 0.08885825f, 0.14216121f, -0.71008110f, -0.61660081f, 0.37591806f, 0.56924033f, 0.59590197f, -0.30719823f, -0.61063737f, 
    0.13104934f, -0.27738789f, 0.79561484f, -0.83479750f, -0.25905144f, -0.27319095f, 0.13094977f, -0.60257030f, 0.12584810f, 0.07725123f, 
    -0.16304013f, -0.72365296f, 0.48831418f, 0.28914070f, 0.18164882f, 0.39743736f, 0.80256176f, 0.34518802f, 0.21402852f, -0.17214552f, 
    0.30108562f, 0.56282061f, 0.70709246f, -0.55170506f, -0.11778556f, 0.47967660f, -1.45894587f, -0.08507121f, -0.10157941f, -0.78191727f, 
    1.29841161f, 0.15809105f, -0.22272481f, -0.21646035f, -1.09180987f, 0.10634398f, 0.00394348f, 1.13434076f, 0.75199825f, 0.12781747f, 
    0.31643659f, 0.44029060f, 0.15190893f, 0.01032896f, -0.53691137f, -0.25177392f, -0.84178054f, 0.70214009f, -0.69014162f, -0.47975180f, 
    -0.36181420f, 0.20213476f, 0.24708173f, 1.02253628f, -0.78067887f, -0.62178421f, 0.29986760f, -0.35760978f, 0.18580902f, 0.60863948f, 
    -0.51913351f, -0.05193150f, -0.06113234f, 0.36408007f, -0.60970688f, -0.15073735f, 0.06560261f, -0.55718815f, -0.15907818f, -0.39561221f, 
    0.00199615f, 0.32909012f, -0.10821865f, -0.06285182f, -0.46546522f, -0.33987582f, -0.54892629f, 0.75575370f, 0.11509843f, 0.59748209f, 
    0.89647901f, -0.08409970f, 0.62108028f, -1.07328892f, -0.24526758f, 0.62167007f, -0.09838524f, 0.13761666f, -1.28110254f, -0.07342049f, 
    -0.48422197f, -0.69428009f, -0.36662897f, 0.28553796f, -0.45343783f, -0.30042696f, -0.21543047f, 0.02595009f, 1.21957207f, 0.79722470f, 
    -0.67001557f, -0.48737043f, -1.87728810f, 1.06425643f, 0.62939894f, 0.34662494f, 0.70945567f, 0.84705621f, -0.59177876f, 0.79130477f, 
    -0.26830837f, -0.81684244f, 0.46149293f, 0.45790911f, -0.11719454f, -0.29648569f, -1.03428328f, 0.01937617f, 0.36385962f, 0.37941721f, 
    0.83860284f, 1.81772840f, 3.04014683f, -2.76863050f, -0.44881687f, 0.11349083f, -1.56096208f, -1.67037630f, 0.66093165f, -1.07597613f, 
    -0.96838015f, 0.29334471f, 0.90267825f, 0.74513215f, 0.76705778f, -0.70344931f, -1.73143518f, -1.98858607f, 0.75928581f, 0.63477772f, 
    0.26555917f, 0.11477114f, -0.16513126f, -0.43994135f, 0.30932575f, -0.24759294f, 0.93853474f, 0.99894816f, 0.10502138f, -0.47457358f, 
    0.33647209f, -0.03145768f, 0.58331865f, -0.42180550f, 0.53103250f, 0.63671440f, 0.20323272f, -1.37375796f, -0.06853944f, 0.52249968f, 
    -0.34679234f, 0.69489247f, 0.14282121f, 0.39568493f, 0.01580900f, 1.51595569f, -1.33315349f, 0.24693164f, 0.55592352f, 0.10895701f, 
    -0.29032844f, -0.38568783f, -0.06764657f, 1.27476120f, -0.49474087f, 0.62287557f, -2.04898334f, -0.96322280f, -0.02295456f, 0.63240826f, 
    0.27545774f, 0.59512782f, 0.68108922f, -0.39446473f, 0.94805330f, 1.96882343f, 0.11358859f, -0.45687535f, -1.51142788f, -3.78732872f
};
const int rnn_weight_hh_l3_dims[] = {40, 10};
const int rnn_weight_hh_l3_num_dims = 2;

const float rnn_bias_ih_l3[] = {
    -0.05738647f, 0.26297864f, 1.39676666f, 0.03889993f, -0.21375763f, -0.36431924f, -0.69944763f, -0.38837516f, -0.37815839f, 0.01302156f, 
    -0.27837595f, -0.31960446f, -0.97851539f, 0.22679356f, -0.90011132f, 0.23231068f, 0.75326407f, -1.03940928f, -0.24203512f, 0.65870327f, 
    0.07232963f, -0.04060910f, 0.11450808f, 0.45345151f, -0.22606564f, -0.05398529f, 0.05933066f, -0.08694251f, -0.00104271f, 0.27864572f, 
    -0.31605637f, 0.40342167f, -0.59166467f, -0.37098408f, 0.02454871f, -0.53363639f, -0.03879277f, -0.06870721f, 0.13372542f, -0.14421394f
};
const int rnn_bias_ih_l3_dims[] = {40};
const int rnn_bias_ih_l3_num_dims = 1;

const float rnn_bias_hh_l3[] = {
    -0.25813279f, -0.35211560f, 1.44819307f, 0.32538188f, -0.05443502f, -0.12998134f, -1.03951406f, -0.31672251f, -0.16969389f, -0.57025635f, 
    -0.38251469f, -0.21211372f, -0.89137167f, 0.16935921f, -0.92670989f, -0.18358743f, 0.31402934f, -1.01047051f, 0.26386163f, 0.83057731f, 
    -0.08424843f, -0.03937095f, -0.24600199f, 0.62365234f, 0.13527706f, 0.10229844f, 0.07615671f, -0.02005231f, -0.08817500f, 0.20976555f, 
    -0.21015298f, 0.24338870f, -0.81044471f, -0.65948832f, 0.35738629f, -0.55058438f, -0.29443291f, 0.34709594f, 0.44152626f, -0.56218010f
};
const int rnn_bias_hh_l3_dims[] = {40};
const int rnn_bias_hh_l3_num_dims = 1;

const float fc_weight[] = {
    0.58808231f, 0.21522011f, -0.00194645f, -0.10091092f, 0.76329058f, 0.45082906f, -0.23530553f, 0.19314748f, 0.45304495f, 0.12204917f, 
    -0.12412218f, -0.84801507f, -0.39332813f, -0.13019307f, 0.23428109f, 0.11375888f, 0.34034646f, 0.39882013f, 0.26180217f, -0.05972989f, 
    -0.38792056f, 0.18496272f, 0.06408913f, 0.07198725f, -0.11069344f, -0.54214305f, 0.21952640f, -0.01534746f, 0.93290937f, -0.19352187f
};
const int fc_weight_dims[] = {3, 10};
const int fc_weight_num_dims = 2;

const float fc_bias[] = {
    -0.15056701f, -0.00509625f, -0.04630066f
};
const int fc_bias_dims[] = {3};
const int fc_bias_num_dims = 1;

#endif // REGRESSION_RNN_MODEL_H
